// contains the list of trained brains to choose from;
const brain0 = {
    // took 45 minutes to train using mutation value 0.4 and cars 1000, optimizes with 0.2 mutation
    "levels": [
        {
            "inputs": [0.5392194000008362, 0.14858846936500458, 0, 0, 0],
            "outputs": [1, 1, 0, 0, 1, 1],
            "biases": [
                -0.4312701977300303, -0.344987055825866, 0.11357129938108931,
                0.2697065538974307, -0.17871096386943705, -0.0957122441206591,
            ],
            "weights": [
                [
                    0.017987692246510686, 0.02918769662312619,
                    -0.012552342756696193, -0.6044028689289715,
                    -0.16435156575648885, -0.032805484713577235,
                ],
                [
                    0.2183048961143784, -0.07244334253921333,
                    -0.2489442224924513, 0.11667969264056938,
                    0.010590867940589777, -0.4881705650088122,
                ],
                [
                    -0.08293151078799552, 0.5978575428589966,
                    -0.1503793576518082, 0.36662669380009194,
                    -0.2963077472308631, -0.40146242688104883,
                ],
                [
                    0.02507613284491937, -0.5048433823161363,
                    0.13930085881163456, 0.6720054207260431,
                    -0.6600570904223495, -0.09824490176503048,
                ],
                [
                    0.4362058202228826, -0.11376876794275215,
                    -0.09040904493601774, 0.46641977946054525,
                    0.22080111795427174, 0.030266636306223824,
                ],
            ],
        },
        {
            "inputs": [1, 1, 0, 0, 1, 1],
            "outputs": [1, 1, 1, 0],
            "biases": [
                -0.3936344843694193, -0.109658529781467, -0.011582835126076357,
                0.05573210413184819,
            ],
            "weights": [
                [
                    0.21574447044741446, -0.03631400569375201,
                    -0.033757684262537446, -0.425776741252442,
                ],
                [
                    -0.46602591283402367, -0.22817890001447458,
                    -0.11127846273373498, -0.10611225226991795,
                ],
                [
                    0.12004335877683264, -0.0466101661014526,
                    -0.0980907725455871, 0.237641601357114,
                ],
                [
                    0.5115308136942301, 0.5334172879393209, -0.7746348421798126,
                    -0.2564137149854165,
                ],
                [
                    0.45593385555085636, -0.1532488423879727,
                    0.49224747953662157, 0.024845224519505216,
                ],
                [
                    0.2615684693926942, 0.3572232298120797, 0.24896616823709722,
                    -0.40744381160834126,
                ],
            ],
        },
    ],
};
